[0.29273680972498917, -0.35995754766161214, 0.012633707025612395, -0.2431462816304657, 0.08325424652896585, -0.7865135453937053, -0.1742107912531552, 0.3584059853811308]|41040|101
[0.29273680972498917, -0.35995754766161214, 0.012633707025612395, -0.2431462816304657, 0.08325424652896585, -0.7865135453937053, -0.1742107912531552, 0.3584059853811308]|34540|101
[0.29273680972498917, -0.35995754766161214, -0.7101078533960463, -0.2431462816304657, 0.08325424652896585, -0.7865135453937053, -0.1742107912531552, 0.3584059853811308]|40440|101
[0.29273680972498917, -0.6687123910716486, 0.012633707025612395, -0.2431462816304657, 0.08325424652896585, -0.7865135453937053, -0.1742107912531552, 0.3584059853811308]|34560|101
[0.29273680972498917, -0.35995754766161214, 0.012633707025612395, -0.2431462816304657, 0.16399838816845058, -0.7865135453937053, -0.1742107912531552, 0.7057091195010059]|42060|101
[0.29273680972498917, 0.5334585457448375, 0.012633707025612395, -0.3946483011496311, 0.16399838816845058, -0.7865135453937053, -0.1742107912531552, 0.7057091195010059]|32000|101
[0.29273680972498917, 0.5334585457448375, 0.012633707025612395, -0.3946483011496311, 0.16399838816845058, -0.7865135453937053, -0.1742107912531552, 0.3584059853811308]|54960|103
[0.29273680972498917, -0.35995754766161214, 0.012633707025612395, -0.3946483011496311, 0.23029373029326372, -0.7865135453937053, -0.1742107912531552, 0.7057091195010059]|41700|101
[0.29273680972498917, -0.35995754766161214, 0.012633707025612395, -0.3946483011496311, 0.08325424652896585, -0.7865135453937053, -0.1742107912531552, 0.7057091195010059]|40080|101
[0.29273680972498917, -0.5182798411512719, -0.3531253001282859, -0.3946483011496311, 0.23029373029326372, -0.7865135453937053, -0.1742107912531552, 0.3584059853811308]|33420|78
[0.29273680972498917, -0.35995754766161214, 0.012633707025612395, -0.017392330152463664, 0.08325424652896585, -0.7865135453937053, -0.1742107912531552, 0.3584059853811308]|38900|101
[0.29273680972498917, -0.35995754766161214, -0.546226654851014, -0.3946483011496311, 0.23029373029326372, -0.7865135453937053, -0.1742107912531552, 0.3584059853811308]|40480|101
[0.29273680972498917, -0.35995754766161214, -0.8282884474271797, -0.3946483011496311, -0.28327496163276433, -0.7865135453937053, -0.1742107912531552, 0.3584059853811308]|38800|101
[0.29273680972498917, -0.35995754766161214, -0.546226654851014, -0.3946483011496311, 0.23029373029326372, -0.7865135453937053, -0.1742107912531552, 0.3584059853811308]|41180|103
[0.29273680972498917, -0.35995754766161214, -0.546226654851014, -0.3946483011496311, 0.23029373029326372, -0.7865135453937053, -0.1742107912531552, 0.3584059853811308]|36460|101
[0.29273680972498917, -0.35995754766161214, 0.012633707025612395, -0.3946483011496311, 0.23029373029326372, -0.7865135453937053, -0.1742107912531552, 0.6291399492421323]|32360|101
[0.29273680972498917, -0.35995754766161214, -0.9579457527973052, -0.017392330152463664, 0.23029373029326372, -0.7865135453937053, -0.1742107912531552, 0.3584059853811308]|39000|101
[0.43007690547312194, -0.35995754766161214, -0.546226654851014, -0.017392330152463664, 0.23029373029326372, -0.6942819054197602, -0.1742107912531552, 0.3584059853811308]|42940|101
[0.29273680972498917, -0.35995754766161214, -0.546226654851014, -0.017392330152463664, 0.23029373029326372, -0.6942819054197602, -0.1742107912531552, 0.3584059853811308]|41380|102
[0.29273680972498917, -0.35995754766161214, -0.546226654851014, -0.1305819222446738, 0.23029373029326372, -0.6942819054197602, -0.1742107912531552, 0.3584059853811308]|28420|101
[0.29273680972498917, -0.35995754766161214, -0.546226654851014, -0.1305819222446738, 0.23029373029326372, 0.03761103401886867, -0.1742107912531552, 0.3584059853811308]|37300|101
[-0.015843498537824408, -0.35995754766161214, -0.546226654851014, -0.017392330152463664, -0.12945427964283063, -0.9155087265757584, -0.1742107912531552, 0.3584059853811308]|36880|101
[0.29273680972498917, -0.35995754766161214, -0.546226654851014, -0.017392330152463664, -0.12945427964283063, -0.7169729437521726, -0.1742107912531552, 0.3584059853811308]|32440|102
[0.29273680972498917, -0.35995754766161214, -0.5786618742135325, -0.1305819222446738, 0.7500275071127729, -0.6942819054197602, -0.1742107912531552, 0.3584059853811308]|40220|101
[0.29273680972498917, 0.73607285109206, -0.546226654851014, -0.017392330152463664, 0.23029373029326372, -0.7169729437521726, -0.1742107912531552, 0.3584059853811308]|49160|101
[0.29273680972498917, -0.35995754766161214, -0.5786618742135325, -0.1305819222446738, 0.19567398199152786, -0.6942819054197602, -0.1742107912531552, 0.3584059853811308]|46220|84
[0.08919448474520375, -0.35995754766161214, -0.546226654851014, -0.1305819222446738, -0.717685527634736, -0.9155087265757584, -0.1742107912531552, 0.3584059853811308]|39040|101
[0.3548956250699635, -0.35995754766161214, -0.546226654851014, -0.1305819222446738, 0.19567398199152786, -0.35726179093298005, -0.1742107912531552, 0.3584059853811308]|32600|102
[0.3548956250699635, -0.35995754766161214, -0.546226654851014, -0.017392330152463664, 0.19567398199152786, -0.35726179093298005, -0.1742107912531552, 0.3584059853811308]|39420|102
[0.3548956250699635, -0.35995754766161214, -0.546226654851014, -0.1305819222446738, 0.23029373029326372, -0.31146023074918494, -0.1742107912531552, 0.16549986926255]|36980|101
[0.3548956250699635, -0.35995754766161214, 0.16316105738802444, -0.1305819222446738, 0.23029373029326372, -0.9155087265757584, -0.1742107912531552, 0.16549986926255]|38760|101
[0.3548956250699635, -0.3252767257462965, -0.546226654851014, -0.1305819222446738, 0.23029373029326372, -0.9155087265757584, -0.1742107912531552, 0.16549986926255]|39160|101
[0.3548956250699635, -0.35995754766161214, -0.546226654851014, -0.017392330152463664, 0.23029373029326372, -0.9155087265757584, -0.1742107912531552, 0.16549986926255]|38540|101
[0.3548956250699635, -0.35995754766161214, -0.546226654851014, -0.017392330152463664, 0.23029373029326372, -0.6618926171719695, -0.1742107912531552, 0.4110259450298974]|42140|101
[0.3548956250699635, 0.8729950259476702, -0.546226654851014, -0.017392330152463664, 0.5158012794106213, -0.9155087265757584, -0.1742107912531552, 0.3584059853811308]|40320|101
[0.3548956250699635, -0.35995754766161214, -0.546226654851014, 0.2035200208279171, 0.23029373029326372, -0.8559373911265069, -0.1742107912531552, 0.16549986926255]|45720|101
[0.3548956250699635, -0.35995754766161214, -0.546226654851014, -0.017392330152463664, 0.3143720341226117, -0.8559373911265069, -0.1742107912531552, 0.3584059853811308]|33120|101
[0.3548956250699635, -0.35995754766161214, -0.546226654851014, -0.017392330152463664, 0.5158012794106213, -0.8559373911265069, -0.1742107912531552, 0.16549986926255]|36980|101
[0.3548956250699635, -0.8880643175505312, -0.21612524163030367, -0.017392330152463664, 0.5158012794106213, -0.8559373911265069, -0.1742107912531552, 0.16549986926255]|42060|101
[0.3548956250699635, -0.35995754766161214, -0.546226654851014, -0.017392330152463664, 0.5158012794106213, -0.9253200165226496, -0.1742107912531552, 0.16549986926255]|30740|101
[0.3548956250699635, -0.8880643175505312, -0.546226654851014, 0.5751594371770341, -0.40048525611844976, -0.9155087265757584, -0.1742107912531552, 0.16549986926255]|38320|101
[0.3548956250699635, -0.4273492629953808, -0.546226654851014, 0.15164119554630995, -0.49524214845589687, -0.8559373911265069, -0.1742107912531552, 0.16549986926255]|35680|101
[0.3548956250699635, -0.35995754766161214, -0.546226654851014, -0.017392330152463664, -0.2234550988603592, -0.8559373911265069, -0.1742107912531552, 0.6716294135479361]|34460|101
[0.3548956250699635, -0.35995754766161214, -0.546226654851014, -0.017392330152463664, -0.2234550988603592, -0.8559373911265069, -0.1742107912531552, 0.16549986926255]|30480|101
[0.3548956250699635, -0.4273492629953808, -0.546226654851014, 0.15164119554630995, -0.49524214845589687, -0.9253200165226496, -0.1742107912531552, 0.6716294135479361]|39400|101
[0.3548956250699635, -0.4273492629953808, -0.41993956170361413, 0.15164119554630995, -0.49524214845589687, -0.9253200165226496, -0.1742107912531552, 0.7590876632249688]|34320|101
[0.3548956250699635, -0.35995754766161214, -0.41993956170361413, 0.15164119554630995, -0.49524214845589687, -0.8559373911265069, -0.1742107912531552, 0.16549986926255]|29920|101
[0.3548956250699635, -0.35995754766161214, -0.6009295367095975, 0.15164119554630995, 0.1896653191482529, -0.8559373911265069, -0.1742107912531552, 0.16549986926255]|30820|101
[0.3548956250699635, -0.35995754766161214, -0.6009295367095975, 0.15164119554630995, -0.2234550988603592, -0.8559373911265069, -0.1742107912531552, 0.6043318554160331]|33240|101
[0.3548956250699635, -0.2664220036448639, -0.3603724804436128, -0.017392330152463664, -0.2234550988603592, -0.8559373911265069, -0.19148333101064674, 0.7590876632249688]|32300|101
[0.3548956250699635, -0.2664220036448639, -0.6214188531753915, 0.15164119554630995, -0.2234550988603592, -0.8559373911265069, -0.1742107912531552, 0.7590876632249688]|39520|101
[0.3548956250699635, 0.39897786719979034, -0.5028664177582192, 0.15164119554630995, -0.2234550988603592, -0.8559373911265069, -0.1742107912531552, 0.4577092812276937]|29680|101
[0.3548956250699635, -0.35995754766161214, -0.6214188531753915, 0.9837563633632762, -0.2234550988603592, -0.8559373911265069, -0.07685932824472164, 0.4577092812276937]|32240|102
[0.3548956250699635, 0.39897786719979034, -0.4799063785351796, 0.15164119554630995, -0.2234550988603592, -0.8559373911265069, -0.1742107912531552, 0.4577092812276937]|34280|101
[0.3548956250699635, -0.5066948848698949, -0.4799063785351796, -0.46738340885895124, -0.2234550988603592, -0.8559373911265069, -0.1742107912531552, 0.4577092812276937]|30020|87
[0.21945310218486935, 0.39897786719979034, -0.28650027463381234, -0.07784803303335752, -0.2234550988603592, -0.8559373911265069, -0.1742107912531552, 0.39306550647471683]|33140|103
[0.5770902938758691, -0.24364991012507553, -0.4799063785351796, -0.46738340885895124, -0.4828643324101798, -0.8559373911265069, -0.1742107912531552, 0.4577092812276937]|36120|101
[0.5770902938758691, 0.5365197154947752, -0.4799063785351796, -0.07784803303335752, -0.2234550988603592, -0.8559373911265069, -0.19148333101064674, 0.39306550647471683]|34540|101
[0.21945310218486935, 0.3771437682194143, -0.28650027463381234, -0.106418623353711, -0.2234550988603592, -0.8559373911265069, -0.19148333101064674, 0.39888624201275613]|48280|101
[0.21945310218486935, 0.39897786719979034, -0.9044735525204437, -0.21444585862030685, -0.2234550988603592, -0.8559373911265069, -0.5582530366266552, 0.757355291027769]|34960|101
[0.21945310218486935, 0.3771437682194143, -0.9044735525204437, -0.21444585862030685, -0.47978157091666573, -0.8559373911265069, -0.19148333101064674, 0.757355291027769]|34060|102
[0.21945310218486935, 0.3771437682194143, -0.28650027463381234, -0.106418623353711, -0.2234550988603592, -0.8559373911265069, -0.19148333101064674, 0.757355291027769]|37680|101
[0.5770902938758691, 0.3771437682194143, -0.9044735525204437, -0.106418623353711, -0.2234550988603592, -0.8559373911265069, -0.1742107912531552, 0.01562876399171742]|44360|101
[-0.14837588138089042, 0.3771437682194143, -0.818245803562557, -0.21444585862030685, -0.39542858182956975, -0.8559373911265069, -0.19148333101064674, 0.757355291027769]|39320|99
[0.5770902938758691, 0.3771437682194143, -0.9044735525204437, -0.106418623353711, -0.39542858182956975, -0.8559373911265069, -0.19148333101064674, 0.01562876399171742]|40020|101
[0.5770902938758691, -0.22054027202359472, -0.9044735525204437, -0.21444585862030685, -0.2234550988603592, -0.8559373911265069, -0.19148333101064674, 0.7714588394410604]|33220|101
[0.5770902938758691, -0.22054027202359472, -0.9044735525204437, -0.5739771334257651, -0.2234550988603592, -0.8559373911265069, -0.19148333101064674, 0.7714588394410604]|32340|103
[0.22478365757599295, -0.6610829424014706, -0.9044735525204437, 0.17683897707539664, -0.2234550988603592, -0.8559373911265069, -0.2900956878696639, 0.17112501629360133]|35740|101
[0.22478365757599295, 0.3771437682194143, -0.1403554495454229, 0.17683897707539664, -0.2234550988603592, -0.8559373911265069, -0.2900956878696639, 0.17112501629360133]|28420|101
[0.4381642903395304, 0.3771437682194143, -0.9044735525204437, 0.17683897707539664, -0.2234550988603592, -0.8559373911265069, -0.2900956878696639, 0.17112501629360133]|30740|101
[-0.23761241901994423, -0.6610829424014706, -0.9044735525204437, -0.7514687765119239, -0.2234550988603592, -0.8559373911265069, -0.2900956878696639, 0.7714588394410604]|32340|101
[0.5242185078338457, -0.22054027202359472, -0.9044735525204437, 0.17683897707539664, -0.2234550988603592, -0.8559373911265069, -0.2900956878696639, 0.17112501629360133]|29360|101
[-0.23761241901994423, 0.3771437682194143, -0.9044735525204437, -0.7514687765119239, -0.6297149968235167, -0.8559373911265069, -0.2900956878696639, 0.7714588394410604]|41280|102
[0.22478365757599295, 0.3771437682194143, -0.9044735525204437, 0.17683897707539664, -0.2234550988603592, -0.8559373911265069, -0.2900956878696639, 0.6262848034925594]|31660|102
[0.5915251792507559, -0.5455401158378723, -0.9044735525204437, -0.7514687765119239, -0.2234550988603592, -0.24594230903801972, -0.2900956878696639, 0.17112501629360133]|32360|93
[0.5915251792507559, -0.5455401158378723, -0.9044735525204437, -0.7514687765119239, -0.2234550988603592, -0.8559373911265069, -0.2900956878696639, 0.17112501629360133]|43920|101
[0.22478365757599295, 0.4236450953784767, -0.9044735525204437, 0.2988407665723469, 0.23130316007976615, -0.8559373911265069, -0.4743815557796762, 0.17112501629360133]|27120|101
[0.22478365757599295, 0.4236450953784767, -0.9044735525204437, -0.7531771675316605, 0.23130316007976615, 0.3404292185985298, -0.4743815557796762, 0.30598080844877384]|30840|96
[0.22478365757599295, 0.4236450953784767, -0.25717097038789727, -0.5003557711802511, 0.27688486844550364, -0.6678372740474157, -0.2900956878696639, 0.33681298516491953]|32720|101
[0.22478365757599295, -0.5455401158378723, -0.9044735525204437, -0.7531771675316605, 0.23130316007976615, -0.8559373911265069, -0.2900956878696639, 0.4338533203146604]|37900|77
[0.5915251792507559, -0.0994413589424481, -0.9044735525204437, -0.5003557711802511, 0.27688486844550364, -0.6678372740474157, -0.2900956878696639, 0.17112501629360133]|36520|95
[0.22478365757599295, -0.5455401158378723, -0.9044735525204437, -0.7531771675316605, 0.23130316007976615, -0.8559373911265069, -0.2900956878696639, 0.17112501629360133]|29220|102
[0.22478365757599295, 0.4236450953784767, -0.9044735525204437, -0.5003557711802511, 0.23130316007976615, -0.6678372740474157, -0.2900956878696639, 0.4953710340155335]|30320|101
[0.22478365757599295, 0.4236450953784767, -0.9044735525204437, 0.24745104556695563, 0.2611776806887096, -0.6678372740474157, -0.2900956878696639, 0.4953710340155335]|30660|101
[0.14153234653955638, 0.4236450953784767, -0.9987792538542004, -0.7531771675316605, 0.23130316007976615, -0.6678372740474157, -0.2900956878696639, 0.28976659359991985]|36760|101
[0.14153234653955638, 0.4236450953784767, -0.9987792538542004, -0.7531771675316605, -0.19208857771953025, -0.6678372740474157, -0.2900956878696639, 0.28976659359991985]|33620|101
[0.14153234653955638, 0.4236450953784767, -0.8691308584232131, -0.7531771675316605, -0.19208857771953025, -0.8559373911265069, -0.2900956878696639, 0.675416991267505]|35660|101
[0.14153234653955638, 0.4236450953784767, -0.9987792538542004, -0.8453062347116065, 0.23130316007976615, -0.6678372740474157, -0.2900956878696639, 0.17112501629360133]|40720|101
[0.5458965891288072, 0.27988300741810423, -0.8691308584232131, -0.7531771675316605, 0.23130316007976615, -0.8559373911265069, -0.2900956878696639, 0.28976659359991985]|45280|101
[0.5458965891288072, 0.27988300741810423, -0.9987792538542004, -0.7531771675316605, 0.23130316007976615, -0.8293408713340045, -0.2900956878696639, 0.28976659359991985]|42260|101
[0.40106473708034174, -0.2440320908755791, -0.9044735525204437, -0.7531771675316605, 0.23130316007976615, -0.8559373911265069, -0.2900956878696639, 0.28976659359991985]|36900|101
[0.8396907103678717, -0.42803674222703525, -0.9044735525204437, -0.8453062347116065, 0.23130316007976615, -0.8559373911265069, -0.2900956878696639, 0.28976659359991985]|39000|101
[0.14153234653955638, 0.16899177050877512, -0.9987792538542004, -0.8453062347116065, 0.23130316007976615, 0.18111870466738278, -0.2900956878696639, 0.28976659359991985]|52140|101
[0.14153234653955638, 0.16899177050877512, -0.9987792538542004, -0.8453062347116065, -0.8870569793374066, 0.18111870466738278, -0.2900956878696639, 0.28976659359991985]|32380|101
[0.14153234653955638, 0.828369733338364, -0.9987792538542004, -0.8453062347116065, 0.23130316007976615, -0.8559373911265069, -0.2900956878696639, 0.17112501629360133]|44120|101
[0.14153234653955638, 0.27988300741810423, -0.5682446761786477, -0.7531771675316605, 0.23130316007976615, -0.8559373911265069, -0.2900956878696639, 0.340488220776332]|36220|101
[0.9776900944876235, 0.27988300741810423, -0.9987792538542004, -0.7531771675316605, 0.23130316007976615, -0.47540677372186213, -0.2900956878696639, 0.17112501629360133]|41040|97
[0.14153234653955638, 0.27988300741810423, -0.5682446761786477, -0.9174557608649625, 0.23130316007976615, -0.8559373911265069, -0.2900956878696639, -0.007727192689643392]|41320|101
[0.14153234653955638, 0.27988300741810423, -0.5682446761786477, -0.7531771675316605, 0.23130316007976615, -0.6440371698469367, -0.2900956878696639, 0.17112501629360133]|31960|101
[0.14153234653955638, 0.27988300741810423, -0.9987792538542004, -0.7531771675316605, -0.3485103993822183, -0.8559373911265069, -0.41723293451729493, 0.17112501629360133]|36800|83
[0.14153234653955638, 0.27988300741810423, -0.9987792538542004, -0.7531771675316605, -0.3485103993822183, -0.8559373911265069, -0.2900956878696639, 0.17112501629360133]|35760|101
[0.3393888160473877, 0.27988300741810423, -0.9987792538542004, -0.7531771675316605, 0.23130316007976615, -0.8559373911265069, -0.2900956878696639, 0.2700296030477145]|39260|101
[0.14153234653955638, 0.27988300741810423, -0.5682446761786477, 0.886494821350504, 0.23130316007976615, -0.47540677372186213, -0.3302902697207031, 0.17112501629360133]|25740|99
[0.35272186636082536, 0.27988300741810423, -0.994208214509138, -0.7531771675316605, 0.495530410285022, -0.8559373911265069, -0.2900956878696639, 0.17112501629360133]|56480|101
[0.14153234653955638, 0.27988300741810423, -0.5682446761786477, -0.7531771675316605, 0.23130316007976615, -0.47540677372186213, -0.3302902697207031, 0.17112501629360133]|40020|103
[0.14153234653955638, 0.27988300741810423, -0.5682446761786477, -0.7531771675316605, 0.23130316007976615, -0.47540677372186213, -0.3302902697207031, 0.17112501629360133]|66800|104
[0.4780426998512701, 0.27988300741810423, -0.2502516157421415, -0.16824305699242337, 0.23130316007976615, -0.47540677372186213, -0.3302902697207031, 0.17112501629360133]|35080|101
[0.14153234653955638, 0.27988300741810423, -0.5682446761786477, -0.7531771675316605, 0.23130316007976615, -0.8559373911265069, -0.3302902697207031, 0.17112501629360133]|40180|91
[0.14153234653955638, 0.27988300741810423, -0.4600724005060588, -0.16824305699242337, 0.23130316007976615, -0.8559373911265069, -0.3302902697207031, 0.17112501629360133]|41840|101
[0.14153234653955638, 0.27988300741810423, -0.5682446761786477, -0.7531771675316605, 0.23130316007976615, -0.8559373911265069, -0.3302902697207031, 0.48674450954769766]|30300|101
[0.14153234653955638, 0.27988300741810423, -0.767219546353126, -0.7531771675316605, 0.23130316007976615, -0.8072627308473659, -0.3302902697207031, 0.17112501629360133]|30780|101
[0.14153234653955638, 0.27988300741810423, -0.767219546353126, -0.4199448248235049, 0.23130316007976615, -0.5954454477424387, -0.3302902697207031, 0.48674450954769766]|39560|101
[0.10229997620213127, 0.27988300741810423, -0.5682446761786477, -0.7531771675316605, 0.23130316007976615, -0.8559373911265069, -0.3302902697207031, 0.17112501629360133]|32220|101
[0.434093186513822, 0.27988300741810423, -0.767219546353126, -0.7025361431937409, 0.9666591149715054, -0.8559373911265069, -0.3302902697207031, 0.4822760768901406]|39540|99
[0.14153234653955638, 0.27988300741810423, -0.767219546353126, -0.16824305699242337, 0.23130316007976615, -0.8559373911265069, -0.3302902697207031, 0.17112501629360133]|58380|101
[0.10229997620213127, 0.27988300741810423, -0.767219546353126, -0.16824305699242337, -0.7582116354271384, -0.8559373911265069, -0.3302902697207031, 0.48674450954769766]|32060|101
[0.14153234653955638, 0.27988300741810423, -0.29619743558436284, -0.3955476932904416, 0.9666591149715054, -0.8559373911265069, -0.35307237569375083, 0.17112501629360133]|34740|89
[0.14153234653955638, 0.27988300741810423, -0.767219546353126, -0.16824305699242337, -0.7582116354271384, -0.8559373911265069, -0.35307237569375083, 0.17112501629360133]|30040|101
[0.434093186513822, 0.27988300741810423, -0.767219546353126, -0.16824305699242337, -0.7582116354271384, -0.8559373911265069, -0.3302902697207031, 0.17112501629360133]|37000|101
[0.14153234653955638, 0.5010044848183695, -0.767219546353126, -0.16824305699242337, -0.7582116354271384, -0.8559373911265069, -0.3302902697207031, 0.17112501629360133]|29880|102
[0.14153234653955638, 0.27988300741810423, -0.5682446761786477, -0.16824305699242337, -0.7582116354271384, -0.8559373911265069, -0.3302902697207031, 0.17112501629360133]|33700|101
[0.434093186513822, 0.5306419912250457, -0.5682446761786477, -0.16824305699242337, -0.15250848366268066, -0.8559373911265069, -0.3302902697207031, 0.17112501629360133]|32240|101
[0.017847927616974957, -0.21342070627044918, -0.6706429908697047, -0.16824305699242337, -0.3709411259047839, -0.30536474211090825, -0.3302902697207031, 0.7275010853114838]|35680|101
[0.434093186513822, 0.27988300741810423, -0.5682446761786477, -0.16824305699242337, -0.3709411259047839, -0.8559373911265069, -0.3302902697207031, 0.17112501629360133]|43040|104
[0.017847927616974957, -0.303607470317649, -0.6706429908697047, -0.16824305699242337, -0.3709411259047839, -0.8559373911265069, -0.3302902697207031, 0.17112501629360133]|37020|101
[0.14153234653955638, -0.21342070627044918, -0.5682446761786477, 0.9687239024653238, -0.3012942420343607, -0.8715417240365126, -0.3302902697207031, 0.17112501629360133]|32140|101
[0.017847927616974957, 0.27988300741810423, -0.1662741641164811, -0.0795560924470804, -0.5520756797263413, -0.8559373911265069, -0.3302902697207031, 0.17112501629360133]|34300|94
[0.434093186513822, -0.5746279746077465, -0.5682446761786477, -0.16824305699242337, 0.1497398308771971, -0.8559373911265069, -0.2679682032405455, 0.17112501629360133]|31400|101
[0.587285759464651, -0.303607470317649, -0.5040262085488749, -0.16824305699242337, -0.3709411259047839, -0.8559373911265069, -0.3302902697207031, 0.17112501629360133]|29640|102
[0.017847927616974957, -0.21342070627044918, -0.7501346014709647, -0.16824305699242337, -0.3709411259047839, -0.8559373911265069, -0.3302902697207031, 0.737788021666415]|30620|101
[0.017847927616974957, 0.4487652593686262, -0.5040262085488749, -0.2937625500104488, -0.3709411259047839, -0.8559373911265069, -0.3302902697207031, 0.737788021666415]|30260|101
[-0.08381230411002649, -0.21342070627044918, -0.5682446761786477, -0.2937625500104488, -0.3709411259047839, -0.8559373911265069, -0.3302902697207031, 0.17112501629360133]|36140|101
[-0.08381230411002649, -0.21342070627044918, -0.5682446761786477, -0.2937625500104488, -0.3709411259047839, -0.8559373911265069, -0.3302902697207031, 0.737788021666415]|33160|101
[-0.08381230411002649, -0.21342070627044918, -0.5682446761786477, -0.2937625500104488, -0.3709411259047839, -0.8559373911265069, -0.3302902697207031, 0.6425719182436034]|39580|103
[-0.08381230411002649, -0.7575765138758421, -0.9745992183810461, -0.16824305699242337, -0.3709411259047839, -0.24545324333273988, -0.3302902697207031, 0.737788021666415]|33640|101
[-0.08381230411002649, -0.9720117006035307, -0.5682446761786477, -0.2937625500104488, -0.3709411259047839, -0.8559373911265069, -0.3302902697207031, 0.6425719182436034]|32200|101
[0.5846415581784423, -0.21342070627044918, -0.5682446761786477, -0.2937625500104488, -0.01705310664415327, -0.8559373911265069, -0.2439695637955892, 0.737788021666415]|34140|101
[-0.08381230411002649, -0.9720117006035307, -0.5682446761786477, -0.2937625500104488, -0.01705310664415327, -0.8559373911265069, -0.3302902697207031, 0.5797321453713724]|30820|101
[0.5846415581784423, -0.9720117006035307, -0.5682446761786477, -0.2937625500104488, 0.6832287674658222, -0.9325881883867015, -0.3302902697207031, 0.737788021666415]|32440|101
[0.5846415581784423, -0.2540359383058668, -0.5682446761786477, -0.3905441382115926, 0.6832287674658222, -0.8559373911265069, -0.3302902697207031, 0.737788021666415]|32100|101
[0.5846415581784423, -0.9720117006035307, -0.5682446761786477, -0.2937625500104488, 0.6832287674658222, -0.9325881883867015, -0.3302902697207031, 0.5797321453713724]|35200|101
[-0.08381230411002649, -0.9720117006035307, -0.5682446761786477, -0.2937625500104488, -0.01705310664415327, -0.8559373911265069, -0.3302902697207031, 0.737788021666415]|33620|101
[0.5846415581784423, -0.9720117006035307, -0.5682446761786477, -0.3700534979469825, 0.6832287674658222, -0.8559373911265069, -0.3302902697207031, 0.5797321453713724]|40900|99
[0.4799677323812914, -0.8058826514932043, -0.5682446761786477, -0.2937625500104488, 0.7140649007267263, -0.3805682196421891, -0.3302902697207031, 0.5797321453713724]|29600|102
[0.4799677323812914, -0.2540359383058668, -0.5682446761786477, -0.2937625500104488, 0.7140649007267263, -0.3805682196421891, -0.3302902697207031, 0.9145769494523741]|32060|101
[0.5846415581784423, 0.06313065928206973, -0.5682446761786477, -0.2937625500104488, 0.7140649007267263, -0.8559373911265069, -0.3302902697207031, -0.008555482163339123]|32300|98
[0.5846415581784423, -0.20328185591848769, -0.5682446761786477, -0.2937625500104488, 0.7140649007267263, -0.8559373911265069, -0.3302902697207031, 0.5797321453713724]|39720|102
[0.4476643365507782, -0.39417532268229905, -0.5682446761786477, -0.3700534979469825, 0.7140649007267263, -0.8559373911265069, -0.3302902697207031, 0.5797321453713724]|35300|101
[0.4476643365507782, -0.39417532268229905, -0.5682446761786477, -0.3700534979469825, 0.07445010445797107, -0.8559373911265069, -0.23713450203811903, 0.5797321453713724]|33760|101
[0.4476643365507782, 0.5826032751618453, -0.8465312621179149, -0.3700534979469825, 0.40104643405121787, 0.006166123168647175, -0.3302902697207031, 0.9049378315570618]|36220|101
[0.5846415581784423, -0.8058826514932043, -0.7947300559238024, -0.2937625500104488, 0.6832287674658222, -0.8559373911265069, -0.3302902697207031, 0.9049378315570618]|32240|101
[0.4476643365507782, -0.8058826514932043, -0.8465312621179149, -0.3700534979469825, 0.6832287674658222, -0.8559373911265069, -0.3302902697207031, 0.5797321453713724]|31860|101
[0.4476643365507782, 0.5826032751618453, -0.8465312621179149, -0.3700534979469825, 0.4648378036715881, -0.8559373911265069, -0.3302902697207031, 0.5797321453713724]|47640|103
[0.5846415581784423, -0.6613232153030844, -0.7947300559238024, -0.2937625500104488, 0.6832287674658222, -0.8559373911265069, -0.3302902697207031, 0.9049378315570618]|40980|101
[0.5846415581784423, -0.8058826514932043, -0.7947300559238024, -0.2937625500104488, 0.6832287674658222, -0.8559373911265069, -0.3302902697207031, 0.7346010605656692]|30140|101
[0.4476643365507782, -0.22031345483276232, -0.8465312621179149, -0.3700534979469825, 0.4648378036715881, -0.8862885156646267, -0.3302902697207031, 0.7472610501675458]|31780|101
[0.4476643365507782, -0.18682951728237396, -0.8465312621179149, -0.3700534979469825, 0.4648378036715881, -0.8862885156646267, -0.3302902697207031, 0.46336353260887897]|30040|101
[0.4476643365507782, 0.9203843287564257, -0.7637305560007093, -0.2951516682372646, 0.6832287674658222, -0.7471255997221102, -0.3302902697207031, 0.46336353260887897]|32940|101
[0.4476643365507782, -0.6513207656666571, -0.5682446761786477, -0.2951516682372646, 0.6832287674658222, -0.09259625329961518, -0.3302902697207031, 0.9049378315570618]|37900|101
[0.4476643365507782, -0.9517089153044627, -0.5682446761786477, -0.5134136356909402, 0.6832287674658222, -0.8559373911265069, -0.7357883451705927, 0.9049378315570618]|30680|101
[0.4476643365507782, -0.8152702480998009, -0.7637305560007093, -0.5134136356909402, 0.6832287674658222, -0.9394286440371347, -0.3302902697207031, 0.9049378315570618]|30400|101
[0.4476643365507782, -0.8152702480998009, -0.4544344784033454, -0.3700534979469825, 0.4648378036715881, -0.9394286440371347, -0.3302902697207031, 0.9049378315570618]|30960|101
[0.4476643365507782, -0.8152702480998009, -0.4544344784033454, -0.3700534979469825, 0.6832287674658222, -0.9394286440371347, -0.3302902697207031, 0.9049378315570618]|28240|101
[0.4476643365507782, 0.8343729704497636, -0.4544344784033454, -0.2951516682372646, 0.6832287674658222, -0.9394286440371347, -0.3302902697207031, 0.9049378315570618]|30760|101
[0.4476643365507782, -0.6166523579493561, -0.7637305560007093, -0.798147847567864, 0.6832287674658222, -0.9394286440371347, -0.3302902697207031, 0.9049378315570618]|38680|101
[-0.021973058345860164, -0.29160065588425166, -0.7637305560007093, -0.5134136356909402, 0.6832287674658222, -0.9394286440371347, -0.3302902697207031, 0.8649615260704553]|40580|101
[0.5846415581784423, -0.6166523579493561, -0.7637305560007093, -0.6391817867815723, -0.796117514515116, -0.9394286440371347, -0.3302902697207031, 0.9049378315570618]|29640|101
[0.5846415581784423, -0.8152702480998009, -0.7637305560007093, -0.5134136356909402, -0.796117514515116, -0.9394286440371347, -0.3302902697207031, 0.9049378315570618]|38380|101
[-0.037908192934231755, -0.8152702480998009, -0.5960200797953412, -0.5134136356909402, 0.6832287674658222, -0.9394286440371347, -0.6531292389388894, 0.9049378315570618]|36520|101
[0.5846415581784423, -0.29160065588425166, -0.5960200797953412, -0.5134136356909402, 0.6832287674658222, -0.9394286440371347, -0.3302902697207031, 0.9049378315570618]|41500|101
[0.5846415581784423, 0.472343266575201, -0.7637305560007093, 0.472880315435543, -0.796117514515116, -0.9394286440371347, -0.3302902697207031, 0.1411264135377801]|29000|101
[0.5846415581784423, 0.8029413591132903, -0.7637305560007093, -0.42213658439417134, -0.23099630545609662, -0.9394286440371347, -0.7949010814633533, 0.9049378315570618]|32320|101
[0.5846415581784423, 0.2592624076254084, -0.7637305560007093, -0.5134136356909402, 0.6832287674658222, -0.9394286440371347, -0.6531292389388894, 0.9049378315570618]|35540|101
[0.5846415581784423, 0.2592624076254084, -0.7637305560007093, -0.5134136356909402, 0.6832287674658222, -0.9394286440371347, -0.6531292389388894, 0.9049378315570618]|32320|101
[-0.02308894076769219, 0.472343266575201, -0.7637305560007093, -0.42213658439417134, -0.23099630545609662, -0.749819825192565, -0.3302902697207031, 0.9049378315570618]|40960|101
[-0.037908192934231755, -0.6394305796412196, -0.7637305560007093, -0.5134136356909402, 0.26725732886352516, -0.9394286440371347, -0.3302902697207031, 0.9049378315570618]|29140|101
[-0.02308894076769219, -0.5596260715009322, -0.7637305560007093, -0.5134136356909402, 0.20087730454362007, -0.9394286440371347, -0.3327165969396966, 0.9049378315570618]|30380|101
[0.27781073530636613, -0.6394305796412196, -0.7637305560007093, -0.5134136356909402, 0.26725732886352516, -0.9394286440371347, -0.3327165969396966, 0.9049378315570618]|34120|101
[0.27781073530636613, -0.41795410487090723, -0.5420390944236688, -0.5134136356909402, -0.382673071074775, -0.9394286440371347, -0.3327165969396966, 0.9049378315570618]|33640|101
[0.8062261580883066, -0.5596260715009322, -0.7637305560007093, -0.5283390722201775, 0.7046477056021003, -0.9394286440371347, -0.6531292389388894, 0.9049378315570618]|28700|101
[0.5846415581784423, 0.758209296853821, -0.7637305560007093, -0.5134136356909402, 0.5289369542874236, -0.9765066343625213, -0.6531292389388894, 0.9049378315570618]|33820|101
[0.5846415581784423, 0.08824402448399038, -0.7637305560007093, -0.5134136356909402, 0.5289369542874236, -0.9765066343625213, -0.6531292389388894, 0.9049378315570618]|33180|101
[0.5182933670384273, -0.1835548945167922, -0.7637305560007093, -0.5134136356909402, 0.0800861215651465, -0.9394286440371347, -0.6531292389388894, 0.8187040292531464]|33040|102
[0.5846415581784423, -0.1835548945167922, -0.6696111859624514, -0.5134136356909402, 0.0800861215651465, -0.9394286440371347, -0.6531292389388894, 0.9049378315570618]|38040|101
[0.5846415581784423, 0.4450372881232618, -0.7637305560007093, -0.5134136356909402, 0.7046477056021003, -0.9394286440371347, -0.6531292389388894, 0.9049378315570618]|31160|101
[0.5846415581784423, -0.1835548945167922, -0.7637305560007093, -0.5134136356909402, 0.7046477056021003, -0.9394286440371347, -0.6531292389388894, 0.9049378315570618]|31560|103
[0.5846415581784423, 0.8023104851787417, -0.7637305560007093, -0.5134136356909402, -0.0868205223470524, -0.9394286440371347, -0.6531292389388894, 0.9049378315570618]|41160|101
[0.5182933670384273, 0.8023104851787417, -0.6696111859624514, -0.5001898589731955, 0.7046477056021003, -0.9394286440371347, -0.6531292389388894, 0.9049378315570618]|32140|101
[0.5182933670384273, 0.8023104851787417, -0.6187025705809754, -0.5001898589731955, 0.7046477056021003, -0.9394286440371347, -0.6531292389388894, 0.9049378315570618]|37800|101
[0.5846415581784423, 0.5786347488111905, -0.6696111859624514, -0.5134136356909402, 0.7046477056021003, -0.9394286440371347, -0.6531292389388894, 0.2860046735931743]|37280|101
[0.5182933670384273, 0.8023104851787417, -0.6696111859624514, -0.5134136356909402, 0.7046477056021003, -0.9394286440371347, -0.6531292389388894, 0.04787784198478651]|29920|101
[0.5182933670384273, 0.14919437263201996, -0.6696111859624514, -0.5134136356909402, 0.7046477056021003, -0.9394286440371347, -0.24073624385702486, 0.9049378315570618]|40940|101
[0.5182933670384273, 0.14919437263201996, -0.22335242934534638, -0.8346526384217252, 0.7046477056021003, -0.9886178236385699, -0.6396654101933847, 0.04787784198478651]|34400|101
[0.5182933670384273, 0.5786347488111905, -0.6696111859624514, -0.8346526384217252, 0.7046477056021003, -0.9394286440371347, -0.24073624385702486, 0.9049378315570618]|43220|101
[0.5182933670384273, 0.14919437263201996, -0.7637305560007093, -0.14313549067201148, 0.7046477056021003, -0.9394286440371347, -0.3604850414719061, 0.9049378315570618]|35520|101
[0.5182933670384273, 0.14919437263201996, -0.7637305560007093, -0.5372836336715956, 0.7046477056021003, -0.9394286440371347, -0.3604850414719061, 0.9049378315570618]|31160|101
[0.5182933670384273, 0.14919437263201996, -0.9662774875146158, -0.5134136356909402, 0.7046477056021003, -0.9394286440371347, -0.3604850414719061, 0.9049378315570618]|64940|102
[0.5182933670384273, -0.6077423148712935, -0.7637305560007093, -0.5134136356909402, 0.7046477056021003, -0.9394286440371347, -0.3604850414719061, 0.9049378315570618]|30660|101
[0.5182933670384273, -0.19470672543701828, -0.9662774875146158, -0.5134136356909402, 0.9590092186492771, -0.9394286440371347, -0.3604850414719061, 0.9049378315570618]|39380|101
[0.5182933670384273, -0.19470672543701828, -0.7637305560007093, -0.5134136356909402, 0.9590092186492771, -0.9394286440371347, -0.39873903463890814, 0.9049378315570618]|39000|101
